//Numpy array shape [64]
//Min -0.879247784615
//Max 1.539159297943
//Number of zeros 0

#ifndef B12_H_
#define B12_H_

#ifndef __SYNTHESIS__
batch_normalization_2_bias_t b12[64];
#else
batch_normalization_2_bias_t b12[64] = {0.5850980878, 1.5391592979, 0.7859806418, 0.9130115509, -0.3718284965, 0.4796972871, 0.2898595333, 0.1564324498, 0.5126528740, -0.2241796553, -0.8661788702, 0.0310068727, 0.9225087166, 0.2253564298, 1.2851511240, 0.6915328503, 0.4748666883, -0.0060228705, 1.0345177650, 1.3433674574, -0.6244857311, 0.0769706964, -0.7703052163, 0.1676510721, -0.3849123120, -0.0189672559, 0.0376675092, 0.3743235171, 0.0353755951, 0.0114408135, 0.5953347683, 0.1574371755, 0.4735269547, 0.0779044032, -0.2093731910, -0.0426484942, 0.0998663455, 0.4500487447, 0.5288469791, 0.3749202490, -0.2712950110, 1.0009009838, 1.2923538685, -0.0767971873, -0.4330845475, 0.5011293888, 0.5342050195, -0.1255445182, -0.1806179285, 1.1592350006, -0.2689576447, -0.0998965204, 0.4604936242, -0.2608868182, 0.3560266495, 0.8075009584, 0.4170176089, 0.1739606708, 0.5855653286, 0.2681633830, 0.0664668679, -0.8792477846, 0.1575213671, 0.8206583261};
#endif

#endif
