//Numpy array shape [64]
//Min -0.042968750000
//Max 0.074218750000
//Number of zeros 3

#ifndef B2_H_
#define B2_H_

#ifndef __SYNTHESIS__
bias2_t b2[64];
#else
bias2_t b2[64] = {0.058593750, -0.005859375, 0.056640625, -0.021484375, 0.001953125, 0.074218750, 0.031250000, 0.033203125, -0.015625000, 0.025390625, -0.009765625, -0.023437500, -0.011718750, -0.041015625, -0.023437500, 0.035156250, 0.003906250, 0.066406250, 0.029296875, -0.017578125, -0.029296875, -0.003906250, 0.011718750, 0.003906250, 0.000000000, 0.000000000, 0.035156250, 0.015625000, 0.007812500, 0.027343750, -0.009765625, 0.001953125, 0.011718750, 0.005859375, -0.013671875, -0.023437500, -0.011718750, -0.035156250, -0.003906250, 0.019531250, 0.037109375, 0.009765625, -0.019531250, 0.060546875, -0.001953125, 0.027343750, 0.015625000, 0.017578125, -0.041015625, -0.009765625, -0.009765625, -0.023437500, 0.015625000, 0.003906250, 0.000000000, -0.029296875, -0.003906250, -0.005859375, -0.042968750, 0.003906250, -0.003906250, 0.013671875, -0.007812500, 0.007812500};
#endif

#endif
