//Numpy array shape [64]
//Min -13.224936485291
//Max 13.898327827454
//Number of zeros 0

#ifndef B4_H_
#define B4_H_

#ifndef __SYNTHESIS__
batch_normalization_bias_t b4[64];
#else
batch_normalization_bias_t b4[64] = {-9.7130260468, -6.7790975571, -12.4411506653, -4.4616041183, -3.6738829613, -8.8718948364, -5.3732466698, -8.3247737885, 4.6060523987, 9.8635206223, 6.8504652977, -8.4144220352, -2.1476469040, -9.3796424866, 0.0223243237, 8.6907577515, -8.3014936447, -7.8916807175, -8.1478462219, 11.0207662582, -7.9789972305, -2.4433393478, -7.8872981071, 7.4493393898, -6.5129084587, 5.5628504753, -8.3256683350, 9.8555660248, 10.5006809235, -8.2745990753, -8.1434831619, -8.5040016174, 4.8972854614, 5.4189381599, -3.2746872902, -8.2669839859, 9.8469247818, -8.6070766449, 10.1434431076, -10.7454004288, -8.3386821747, 12.4717979431, 2.9589402676, -8.3820228577, -10.5698995590, 1.1976602077, -1.1148011684, -2.7245795727, -10.1938190460, 11.0587358475, -10.3482637405, -8.5413293839, -8.0858688354, -8.4806118011, -8.0932521820, -8.9865579605, -9.0880708694, -9.0908374786, -8.9322490692, 2.1921961308, -0.6619073153, 13.8983278275, -6.8508019447, -13.2249364853};
#endif

#endif
