//Numpy array shape [8, 64]
//Min -1.000000000000
//Max 0.802734375000
//Number of zeros 6

#ifndef W10_H_
#define W10_H_

#ifndef __SYNTHESIS__
weight10_t w10[512];
#else
weight10_t w10[512] = {-0.013671875, -0.451171875, -0.042968750, -0.023437500, -0.972656250, 0.222656250, -0.117187500, 0.060546875, -0.347656250, -0.226562500, -0.212890625, -0.363281250, -0.076171875, 0.285156250, -0.529296875, 0.296875000, -0.066406250, -0.265625000, -0.025390625, 0.007812500, -0.523437500, -0.136718750, -0.511718750, 0.054687500, -0.005859375, -0.615234375, -0.041015625, -0.025390625, -0.326171875, -0.003906250, -0.083984375, 0.050781250, -0.003906250, -0.177734375, 0.003906250, -0.007812500, -0.189453125, 0.406250000, -0.478515625, 0.125000000, -0.001953125, -0.587890625, -0.050781250, -0.019531250, -0.634765625, -0.025390625, -0.052734375, -0.011718750, -0.052734375, -0.841796875, 0.033203125, 0.039062500, 0.011718750, 0.107421875, -0.183593750, 0.046875000, -0.957031250, -0.121093750, -0.445312500, -0.400390625, 0.007812500, 0.375000000, 0.193359375, 0.267578125, -0.023437500, -0.072265625, -0.041015625, -0.041015625, 0.031250000, 0.224609375, -0.775390625, -0.003906250, -0.029296875, -0.236328125, 0.001953125, 0.005859375, 0.091796875, 0.050781250, 0.054687500, 0.166015625, -0.003906250, -0.121093750, -0.005859375, 0.000000000, 0.037109375, 0.214843750, -0.169921875, 0.248046875, -0.882812500, -0.087890625, -0.261718750, 0.041015625, -0.314453125, 0.591796875, -0.054687500, 0.464843750, -0.183593750, -0.376953125, -0.068359375, -0.021484375, 0.277343750, 0.191406250, -0.705078125, 0.162109375, -0.013671875, 0.003906250, 0.035156250, 0.029296875, -0.113281250, -0.488281250, -0.767578125, -0.193359375, 0.005859375, -0.160156250, 0.000000000, -0.007812500, 0.140625000, 0.093750000, -0.650390625, 0.220703125, -0.123046875, -0.296875000, -0.144531250, -0.205078125, -0.625000000, -0.275390625, -0.582031250, 0.341796875, -0.056640625, -0.181640625, 0.037109375, 0.021484375, 0.236328125, -0.585937500, -0.544921875, -0.080078125, -0.941406250, -0.132812500, -0.292968750, 0.076171875, 0.228515625, -0.445312500, 0.019531250, 0.503906250, 0.001953125, -0.375000000, -0.039062500, -0.039062500, 0.369140625, -0.218750000, -0.873046875, 0.021484375, -0.275390625, -0.058593750, -0.187500000, -0.070312500, 0.212890625, -0.220703125, -0.240234375, 0.281250000, -0.007812500, -0.626953125, 0.001953125, -0.007812500, -0.679687500, -0.054687500, -0.250000000, -0.294921875, 0.005859375, -0.265625000, 0.003906250, -0.003906250, 0.191406250, -0.224609375, -0.736328125, -0.187500000, -0.001953125, 0.011718750, 0.001953125, 0.000000000, -0.187500000, 0.257812500, -0.455078125, 0.017578125, 0.041015625, 0.023437500, -0.042968750, -0.027343750, -0.041015625, -0.355468750, -0.638671875, 0.167968750, 0.000000000, -0.808593750, -0.025390625, 0.001953125, -0.914062500, -0.183593750, 0.164062500, -0.082031250, -0.052734375, -0.203125000, 0.044921875, 0.027343750, -0.876953125, 0.226562500, 0.099609375, 0.111328125, 0.000000000, -0.453125000, -0.037109375, 0.048828125, -0.318359375, -0.376953125, -0.275390625, 0.193359375, -0.214843750, -1.000000000, 0.074218750, 0.113281250, 0.115234375, -0.052734375, -0.642578125, 0.160156250, 0.001953125, -0.863281250, -0.144531250, 0.013671875, 0.365234375, 0.304687500, 0.052734375, -0.216796875, 0.074218750, -0.087890625, -0.855468750, -0.685546875, -0.048828125, 0.347656250, 0.111328125, 0.130859375, -0.511718750, -0.882812500, -0.154296875, -0.150390625, -0.486328125, 0.396484375, -0.957031250, 0.240234375, -0.041015625, -0.511718750, -0.216796875, 0.255859375, -0.394531250, 0.544921875, -0.642578125, 0.232421875, -0.023437500, -0.382812500, -0.019531250, -0.056640625, -0.570312500, 0.042968750, -0.019531250, 0.013671875, -0.517578125, -0.041015625, 0.089843750, -0.515625000, -0.021484375, -0.042968750, 0.046875000, 0.212890625, -0.041015625, -0.626953125, 0.025390625, 0.050781250, -0.447265625, -0.525390625, 0.042968750, 0.138671875, -0.083984375, -0.017578125, 0.001953125, -0.746093750, 0.037109375, 0.044921875, -0.007812500, -0.013671875, -0.029296875, -0.484375000, -0.048828125, 0.033203125, 0.470703125, 0.287109375, -0.732421875, 0.126953125, -0.005859375, 0.152343750, 0.007812500, -0.001953125, -0.382812500, 0.244140625, -0.675781250, 0.402343750, -0.101562500, -0.468750000, 0.003906250, 0.025390625, 0.388671875, 0.314453125, -0.218750000, -0.125000000, -0.031250000, -0.558593750, -0.021484375, -0.029296875, -0.986328125, -0.193359375, 0.027343750, 0.001953125, 0.001953125, -0.068359375, 0.005859375, 0.001953125, -0.101562500, 0.802734375, -0.636718750, 0.171875000, -0.058593750, -0.796875000, -0.015625000, -0.007812500, 0.039062500, -0.042968750, -0.035156250, 0.011718750, -0.464843750, 0.308593750, -0.271484375, -0.244140625, 0.009765625, -0.330078125, -0.472656250, 0.322265625, 0.074218750, 0.031250000, -0.263671875, -0.447265625, -0.078125000, 0.105468750, 0.025390625, 0.064453125, -0.001953125, -0.259765625, -0.001953125, -0.003906250, 0.121093750, 0.041015625, 0.111328125, -0.896484375, -0.007812500, -0.091796875, -0.048828125, -0.007812500, 0.144531250, 0.197265625, -0.751953125, 0.115234375, -0.066406250, -0.566406250, -0.013671875, -0.005859375, -0.611328125, 0.246093750, -0.593750000, 0.029296875, 0.003906250, -0.341796875, 0.007812500, -0.019531250, -0.275390625, -0.484375000, 0.029296875, 0.304687500, 0.185546875, -0.263671875, -0.480468750, -0.662109375, 0.093750000, 0.357421875, 0.142578125, 0.316406250, -0.208984375, -0.658203125, -0.072265625, -0.027343750, 0.558593750, 0.107421875, -0.230468750, 0.308593750, 0.007812500, 0.039062500, 0.005859375, -0.060546875, -0.160156250, 0.210937500, -0.083984375, -0.681640625, -0.007812500, -0.248046875, 0.003906250, -0.007812500, -0.384765625, -0.033203125, 0.082031250, -0.039062500, -0.087890625, -0.162109375, 0.013671875, 0.023437500, 0.203125000, -0.015625000, -0.941406250, -0.070312500, 0.001953125, -0.208984375, 0.001953125, 0.001953125, 0.382812500, -0.697265625, -0.578125000, 0.035156250, -0.027343750, -0.691406250, -0.072265625, 0.023437500, 0.115234375, 0.148437500, -0.865234375, 0.103515625, -0.009765625, -0.345703125, 0.001953125, 0.001953125, -0.277343750, -0.367187500, -0.519531250, -0.193359375, -0.031250000, -0.212890625, -0.119140625, -0.044921875, 0.134765625, 0.205078125, -0.890625000, 0.072265625, -0.050781250, -0.281250000, 0.044921875, 0.025390625, 0.056640625, 0.113281250, -0.650390625, -0.197265625, -0.076171875, -0.720703125, 0.000000000, 0.017578125, -0.222656250, -0.216796875, -0.535156250, 0.054687500, 0.001953125, 0.058593750, 0.003906250, -0.066406250, -0.228515625, 0.017578125, -0.121093750, -0.701171875, -0.158203125, 0.031250000, -0.156250000, -0.750000000, -0.082031250, 0.070312500, 0.037109375, 0.162109375, 0.033203125, -0.062500000, -0.015625000, -0.025390625, 0.115234375, -0.128906250, -0.003906250, -0.714843750, -0.050781250, -0.564453125, 0.027343750, 0.007812500, 0.193359375, -0.500000000, -0.746093750, 0.242187500, -0.136718750, -0.687500000, -0.007812500, 0.031250000, -0.658203125, 0.486328125, -0.912109375, 0.191406250};
#endif

#endif
