//Numpy array shape [64, 8]
//Min -0.705078125000
//Max 0.628906250000
//Number of zeros 7

#ifndef W6_H_
#define W6_H_

#ifndef __SYNTHESIS__
weight6_t w6[512];
#else
weight6_t w6[512] = {-0.242187500, -0.009765625, -0.082031250, 0.033203125, 0.054687500, 0.531250000, -0.050781250, -0.003906250, -0.076171875, -0.009765625, 0.082031250, 0.480468750, -0.066406250, -0.300781250, -0.009765625, 0.003906250, 0.394531250, 0.271484375, 0.025390625, 0.222656250, 0.302734375, 0.107421875, 0.126953125, 0.039062500, 0.007812500, 0.048828125, 0.455078125, -0.023437500, 0.027343750, -0.408203125, 0.458984375, -0.306640625, -0.107421875, 0.099609375, -0.113281250, 0.097656250, 0.007812500, 0.550781250, 0.060546875, -0.076171875, 0.376953125, 0.066406250, 0.015625000, -0.197265625, 0.011718750, -0.001953125, 0.009765625, -0.003906250, -0.578125000, 0.234375000, -0.242187500, 0.326171875, -0.560546875, -0.554687500, -0.537109375, 0.000000000, -0.087890625, -0.384765625, -0.003906250, -0.119140625, 0.007812500, -0.009765625, -0.015625000, -0.158203125, 0.017578125, -0.117187500, -0.214843750, -0.058593750, 0.109375000, 0.203125000, 0.037109375, -0.212890625, 0.031250000, -0.132812500, -0.011718750, 0.208984375, -0.003906250, -0.150390625, -0.033203125, -0.064453125, 0.085937500, 0.099609375, 0.171875000, 0.117187500, 0.095703125, 0.001953125, -0.060546875, -0.148437500, -0.099609375, 0.207031250, 0.386718750, 0.076171875, -0.021484375, -0.060546875, 0.052734375, -0.015625000, 0.187500000, -0.054687500, -0.156250000, 0.251953125, -0.021484375, 0.306640625, -0.150390625, -0.130859375, 0.123046875, 0.261718750, 0.007812500, 0.029296875, -0.119140625, 0.105468750, -0.027343750, -0.103515625, -0.150390625, -0.052734375, -0.050781250, 0.255859375, -0.035156250, -0.070312500, -0.031250000, -0.169921875, -0.091796875, -0.187500000, -0.222656250, -0.035156250, 0.000000000, -0.152343750, -0.082031250, -0.240234375, -0.074218750, 0.001953125, 0.019531250, -0.154296875, -0.125000000, 0.431640625, -0.091796875, -0.054687500, 0.240234375, 0.003906250, -0.029296875, 0.537109375, 0.308593750, -0.175781250, -0.089843750, 0.037109375, 0.343750000, 0.433593750, 0.080078125, 0.005859375, 0.269531250, -0.037109375, 0.041015625, -0.009765625, -0.039062500, -0.003906250, 0.628906250, 0.011718750, 0.019531250, -0.513671875, 0.425781250, -0.345703125, 0.054687500, -0.060546875, -0.289062500, 0.103515625, 0.076171875, 0.623046875, -0.015625000, -0.048828125, 0.171875000, 0.050781250, -0.052734375, -0.181640625, 0.009765625, -0.001953125, -0.306640625, 0.019531250, -0.623046875, -0.033203125, 0.001953125, 0.523437500, -0.705078125, -0.705078125, -0.687500000, -0.037109375, 0.042968750, -0.398437500, -0.039062500, 0.041015625, -0.224609375, -0.023437500, 0.000000000, 0.019531250, -0.302734375, -0.021484375, -0.023437500, 0.037109375, 0.023437500, 0.388671875, -0.003906250, 0.000000000, -0.052734375, -0.007812500, 0.011718750, 0.513671875, -0.339843750, -0.349609375, 0.091796875, -0.031250000, 0.339843750, 0.455078125, 0.093750000, -0.037109375, 0.339843750, -0.138671875, -0.025390625, 0.013671875, -0.007812500, 0.101562500, 0.517578125, -0.011718750, 0.029296875, -0.419921875, 0.207031250, -0.396484375, 0.007812500, -0.005859375, 0.029296875, 0.181640625, 0.000000000, 0.472656250, 0.021484375, -0.093750000, 0.308593750, 0.087890625, 0.117187500, -0.191406250, 0.021484375, -0.001953125, 0.339843750, -0.033203125, -0.587890625, 0.007812500, 0.044921875, 0.509765625, -0.546875000, -0.556640625, -0.431640625, 0.041015625, 0.013671875, -0.373046875, -0.009765625, 0.156250000, 0.259765625, -0.017578125, -0.019531250, -0.011718750, -0.031250000, -0.015625000, -0.162109375, -0.287109375, 0.154296875, 0.359375000, 0.097656250, -0.197265625, -0.052734375, 0.005859375, 0.070312500, -0.056640625, 0.058593750, -0.164062500, -0.050781250, 0.029296875, 0.005859375, 0.121093750, 0.242187500, -0.066406250, 0.132812500, -0.023437500, 0.132812500, -0.070312500, -0.050781250, -0.076171875, 0.066406250, 0.142578125, -0.021484375, -0.050781250, 0.343750000, 0.011718750, 0.123046875, -0.226562500, 0.042968750, 0.298828125, -0.091796875, 0.052734375, 0.031250000, -0.156250000, 0.041015625, 0.189453125, -0.177734375, 0.146484375, 0.167968750, -0.064453125, -0.039062500, -0.132812500, -0.025390625, -0.107421875, -0.013671875, 0.369140625, -0.091796875, 0.064453125, -0.060546875, -0.072265625, -0.117187500, -0.214843750, -0.132812500, -0.041015625, -0.015625000, -0.164062500, -0.019531250, -0.187500000, 0.048828125, -0.050781250, -0.031250000, -0.251953125, 0.152343750, 0.031250000, -0.003906250, 0.068359375, -0.140625000, -0.152343750, -0.232421875, -0.210937500, -0.185546875, -0.093750000, -0.078125000, -0.078125000, -0.171875000, 0.060546875, 0.185546875, -0.056640625, 0.003906250, -0.074218750, 0.183593750, -0.349609375, -0.031250000, -0.167968750, 0.042968750, -0.380859375, -0.013671875, 0.113281250, 0.173828125, -0.095703125, 0.007812500, -0.130859375, -0.001953125, 0.125000000, -0.230468750, -0.021484375, -0.367187500, -0.029296875, -0.093750000, -0.138671875, -0.185546875, 0.046875000, 0.246093750, 0.068359375, -0.103515625, -0.082031250, 0.005859375, -0.103515625, -0.035156250, 0.191406250, -0.050781250, -0.201171875, 0.025390625, 0.021484375, -0.052734375, -0.128906250, 0.025390625, -0.042968750, 0.015625000, -0.169921875, -0.048828125, -0.078125000, -0.273437500, -0.111328125, -0.195312500, -0.048828125, -0.046875000, 0.123046875, 0.126953125, -0.224609375, 0.054687500, -0.080078125, -0.005859375, 0.318359375, -0.148437500, -0.226562500, 0.042968750, -0.044921875, 0.150390625, 0.113281250, 0.123046875, 0.085937500, 0.007812500, -0.011718750, -0.205078125, -0.093750000, -0.117187500, 0.216796875, 0.300781250, -0.066406250, 0.044921875, -0.005859375, -0.035156250, -0.191406250, 0.179687500, -0.103515625, -0.160156250, 0.224609375, -0.068359375, 0.205078125, -0.068359375, 0.068359375, 0.169921875, 0.132812500, -0.021484375, -0.027343750, -0.460937500, 0.179687500, 0.101562500, -0.111328125, -0.162109375, 0.072265625, -0.080078125, 0.033203125, -0.054687500, -0.101562500, -0.078125000, -0.097656250, -0.113281250, -0.115234375, -0.197265625, 0.007812500, 0.039062500, -0.113281250, -0.144531250, -0.066406250, 0.107421875, 0.009765625, -0.052734375, 0.076171875, -0.089843750, 0.064453125, 0.085937500, -0.064453125, -0.070312500, -0.431640625, -0.384765625, 0.017578125, 0.078125000, 0.033203125, 0.029296875, -0.480468750, 0.072265625, -0.017578125, 0.001953125, -0.232421875, -0.017578125, 0.011718750, -0.062500000, -0.283203125, -0.013671875, -0.066406250, 0.076171875, -0.302734375, -0.410156250, -0.037109375, -0.023437500, -0.128906250, -0.011718750, 0.000000000, 0.070312500, -0.076171875, -0.544921875, -0.070312500, -0.447265625, -0.128906250, 0.044921875, -0.148437500, 0.025390625, 0.041015625, -0.037109375, -0.029296875, -0.017578125, 0.013671875, -0.087890625, -0.207031250, -0.017578125, 0.017578125, 0.113281250, 0.000000000, 0.093750000, 0.009765625, 0.029296875, 0.029296875, 0.054687500, 0.041015625, -0.023437500, -0.472656250, 0.019531250, 0.027343750};
#endif

#endif
